svm_type c_svc
kernel_type rbf
gamma 5.0E-4
nr_class 3
total_sv 65
rho 2.804295814339362 0.47660656468470575 0.5816169285369598
label 1 2 3
nr_sv 21 16 28
SV
9.290837316576846 12.073212017537765 0:7.66145 0:-0.943315 0:6.90967 0:7.45076 0:-0.608127 0:7.08684 0:7.49385 0:-0.172383 0:7.28795 0:6.71334 0:0.837971 0:7.58483 0:6.65588 0:0.612916 0:7.35499 0:6.71334 0:0.814029 0:7.3502 0:6.87136 0:0.651223 0:7.52258 0:6.87136 0:0.818817 0:7.71891 0:6.78038 0:0.80924 0:7.59441 0:6.67982 0:0.905008 0:7.79552 0:6.69419 0:0.905008 0:7.60877 0:6.63673 0:1.01035 0:7.73327 0:6.67503 0:0.986411 0:7.80031 0:6.70855 0:1.07739 0:7.61356 0:6.62715 0:0.866701 0:8.25521 0:6.72771 0:0.905008 0:7.26401 0:6.7325 0:1.01514 0:7.29274 0:6.42604 0:0.363919 0:7.73327 0:6.1531 0:0.617704 0:8.78193 0:5.34386 0:-0.0670377 0:9.0836 0:5.53061 0:0.407014 0:10.386 0:5.23851 0:0.292093 0:10.4387 0:4.96079 0:1.09654 0:11.4587 0:4.50589 0:-0.0287304 0:9.94551 0:4.98952 0:-0.550666 0:8.53772 
4.6329240851406075 3.5942409996436373 0:4.89375 0:-0.80924 0:7.9296 0:5.2864 0:-0.708684 0:8.39886 0:4.61123 0:-0.976834 0:8.31267 0:4.77404 0:-1.29287 0:8.28873 0:4.52025 0:-1.22104 0:8.11155 0:4.3766 0:-1.28329 0:8.60476 0:4.458 0:-1.25456 0:9.69652 0:4.49152 0:-1.48919 0:9.7444 0:4.00789 0:-1.02472 0:9.52413 0:4.03184 0:-0.933739 0:9.76356 0:4.15155 0:-0.54109 0:8.81066 0:3.99353 0:-0.454898 0:9.56244 0:4.72615 0:0.205901 0:9.46667 0:4.0031 0:-0.354342 0:8.92558 0:3.77805 0:-0.560243 0:9.8258 0:3.66792 0:-0.967257 0:10.1801 0:3.44765 0:-0.871489 0:10.0269 0:3.50511 0:-0.837971 0:9.71088 0:3.46202 0:-0.474052 0:9.61033 0:3.45244 0:-0.205901 0:8.64307 0:3.71101 0:-0.814029 0:9.54329 0:3.52905 0:-0.220267 0:9.71567 0:3.35188 0:-0.0430956 0:9.50019 0:3.57215 0:-0.622492 0:9.5385 0:4.06057 0:-0.588974 0:9.95509 
26.086052636005817 0.0 0:4.07493 0:0.124498 0:9.7875 0:3.4668 0:0.785298 0:9.60554 0:3.28006 0:1.18274 0:9.7013 0:3.34709 0:0.828394 0:9.66779 0:3.42371 0:0.976834 0:9.30387 0:3.57694 0:0.632069 0:9.51935 0:3.43807 0:0.339977 0:9.8689 0:3.65834 0:0.0861913 0:9.75877 0:3.58173 0:-0.177171 0:9.42837 0:3.4285 0:-0.924162 0:10.094 0:3.83551 0:-1.05345 0:9.90721 0:3.97437 0:-1.68073 0:9.70609 0:3.89776 0:-2.08774 0:9.31823 0:4.25689 0:-3.74453 0:10.0269 0:4.75488 0:-4.14676 0:7.77637 0:6.00466 0:-4.4197 0:7.52258 0:4.87938 0:-3.83072 0:7.56089 0:4.98952 0:-2.81558 0:7.62314 0:5.43484 0:-3.56257 0:7.7237 0:5.30555 0:-3.82115 0:8.82503 0:5.74608 0:-2.96402 0:9.29429 0:5.30555 0:-2.31759 0:8.9591 0:5.20499 0:-1.7765 0:7.98706 0:5.35344 0:-0.9912 0:7.5561 0:5.41568 0:-1.01035 0:7.04853 
0.0 6.158299762837772 0:5.33428 0:-0.378284 0:7.07726 0:5.01825 0:-0.45011 0:8.43717 0:3.93128 0:-0.047884 0:9.5816 0:3.5913 0:0.0957681 0:10.4196 0:2.33195 0:0.0861913 0:10.6686 0:1.33118 0:0.474052 0:11.0229 0:0.430956 0:0.426168 0:11.1666 0:0.138864 0:0.651223 0:10.7691 0:-0.0047884 0:0.703895 0:10.6159 0:0.158017 0:0.703895 0:11.3581 0:-1.17795 0:0.268151 0:10.4914 0:-0.373495 0:0.339977 0:9.74919 0:-1.40779 0:0.153229 0:10.0509 0:-0.445322 0:-0.320823 0:11.0564 0:-0.627281 0:0.263362 0:10.6686 0:-0.694318 0:-0.47884 0:9.95509 0:-0.746991 0:-0.349553 0:11.0085 0:-0.167594 0:-0.363919 0:9.7013 0:-0.426168 0:0.47884 0:14.528 0:-0.23942 0:-0.21069 0:10.5824 0:-0.0718261 0:-0.0383072 0:10.2951 0:-0.397437 0:-0.153229 0:10.5776 0:-0.407014 0:-0.148441 0:10.319 0:-0.258574 0:-0.0861913 0:10.319 0:-0.201113 0:-0.124498 0:10.5345 
0.6777788454030982 4.796697183758427 0:-0.306458 0:-0.153229 0:10.2424 0:-0.3304 0:-0.196325 0:10.4435 0:-0.205901 0:-0.110133 0:10.3573 0:-0.229843 0:-0.129287 0:10.568 0:-0.229843 0:-0.138864 0:10.3956 0:-0.363919 0:-0.100556 0:10.4004 0:-0.272939 0:-0.0526724 0:10.4627 0:-0.373495 0:-0.138864 0:10.3238 0:-0.277727 0:-0.143652 0:10.5153 0:-0.268151 0:-0.100556 0:10.4818 0:-1.13964 0:0.373495 0:11.473 0:-1.53229 0:2.49476 0:11.0612 0:0.612916 0:2.8922 0:10.3621 0:2.35111 0:3.40934 0:9.09318 0:4.46758 0:2.67193 0:7.65187 0:5.51624 0:2.69587 0:6.92403 0:5.07571 0:2.2697 0:8.53294 0:3.24175 0:2.11169 0:10.41 0:3.82115 0:2.48518 0:8.92558 0:3.48596 0:2.30322 0:9.76834 0:3.16035 0:2.02071 0:10.1658 0:3.36146 0:1.84832 0:9.65821 0:3.58173 0:2.3942 0:10.659 0:4.9943 0:3.02148 0:9.71567 0:5.70299 0:3.14598 0:6.22971 
0.0 16.183364637639336 0:-0.335188 0:-0.138864 0:10.3717 0:-0.344765 0:-0.0526724 0:10.4579 0:-0.373495 0:-0.0191536 0:10.5297 0:-0.23942 0:-0.148441 0:10.4531 0:-0.339977 0:-0.023942 0:10.3956 0:-0.167594 0:0.555455 0:10.386 0:0.0957681 0:0.110133 0:10.2663 0:-0.493206 0:-1.0343 0:10.2759 0:-0.172383 0:-0.373495 0:10.6686 0:0.047884 0:-0.11971 0:11.0277 0:-1.20189 0:0.565032 0:12.2775 0:-0.272939 0:-0.177171 0:9.96946 0:-0.253785 0:-0.100556 0:10.2232 0:-0.407014 0:-0.411803 0:10.2663 0:-0.368707 0:-0.814029 0:10.726 0:-0.383072 0:0.526724 0:10.6159 0:-0.703895 0:-1.21625 0:10.5393 0:-1.10133 0:0.0670377 0:9.88805 0:-0.387861 0:0.311246 0:10.6686 0:-0.746991 0:0.521936 0:11.3198 0:-1.02472 0:0.502782 0:8.98783 0:-0.579397 0:1.66636 0:10.4196 0:-0.162806 0:2.19309 0:10.4244 0:0.622492 0:2.95445 0:10.228 0:3.03585 0:2.66235 0:8.90164 
0.0 0.594870310338823 0:6.51223 0:2.53307 0:6.39731 0:7.69018 0:3.65355 0:4.51546 0:7.89129 0:3.47638 0:3.80199 0:8.25042 0:3.36146 0:4.37181 0:7.88171 0:1.78607 0:5.50188 0:6.93361 0:0.986411 0:8.27436 0:5.91368 0:0.617704 0:8.74362 0:6.38773 0:0.90022 0:8.81066 0:6.98628 0:1.62806 0:7.08684 0:8.71968 0:2.30322 0:5.06613 0:8.66222 0:2.40857 0:0.42138 0:8.1355 0:4.13718 0:-2.96881 0:6.78996 0:5.25767 0:-3.39977 0:5.95199 0:3.93607 0:-1.38864 0:6.71334 0:-4.0462 0:7.2257 0:3.87861 0:-3.58173 0:11.564 0:1.52271 0:0.0 0:10.6829 0:0.823605 0:1.60412 0:9.9934 0:-0.282516 0:0.612916 0:15.6054 0:-0.023942 0:-0.248997 0:10.4387 0:-0.507571 0:-0.177171 0:10.5824 0:-0.344765 0:-0.110133 0:10.4004 0:-0.354342 0:-0.0335188 0:10.5776 0:-0.416591 0:-0.0957681 0:10.319 0:-0.349553 0:-0.0622492 0:10.4962 
1.0751294116231433 2.656316476817057 0:-1.55623 0:-5.64553 0:11.7076 0:-1.09654 0:-6.0717 0:10.7979 0:-0.0718261 0:-5.76524 0:9.83538 0:0.962469 0:-5.58328 0:9.19373 0:2.55222 0:-5.04219 0:8.71968 0:3.02148 0:-5.05177 0:8.55209 0:3.65834 0:-4.93684 0:8.41323 0:3.73495 0:-5.40132 0:8.61434 0:4.26647 0:-5.22415 0:8.2983 0:5.82749 0:-0.440533 0:5.10444 0:8.61434 0:1.38864 0:4.61602 0:8.91122 0:3.08373 0:2.66235 0:8.25999 0:3.90734 0:2.28407 0:8.95431 0:4.05578 0:1.94409 0:8.63349 0:4.04141 0:1.69509 0:8.9591 0:3.89776 0:1.39821 0:8.71011 0:3.67749 0:1.03908 0:8.99741 0:3.45723 0:1.12527 0:8.98783 0:3.77805 0:1.70946 0:9.27993 0:3.12204 0:1.35033 0:9.29429 0:2.3128 0:1.69031 0:8.82503 0:2.76291 0:0.866701 0:7.85777 0:-1.17795 0:5.87058 0:6.33985 0:-2.21703 0:8.03494 0:3.78763 0:-1.42216 0:10.4291 
0.0 4.014986904518116 0:-0.215478 0:-0.186748 0:10.3669 0:-0.368707 0:0.023942 0:10.5153 0:-0.220267 0:-0.196325 0:10.5153 0:-0.272939 0:-0.0287304 0:10.5345 0:-0.292093 0:-0.23942 0:10.5201 0:-0.316035 0:-0.105345 0:10.4291 0:-0.201113 0:-0.162806 0:10.3621 0:-0.392649 0:-0.205901 0:10.3573 0:-0.521936 0:-0.158017 0:10.4483 0:-0.407014 0:-0.35913 0:10.2807 0:-0.349553 0:-0.134075 0:10.477 0:-0.335188 0:-0.0814029 0:10.4962 0:-0.134075 0:0.0622492 0:10.41 0:-0.277727 0:-0.0574608 0:10.3813 0:-0.306458 0:-0.162806 0:10.4244 0:-0.363919 0:-0.0047884 0:10.4148 0:-0.229843 0:-0.124498 0:10.4483 0:-0.272939 0:-0.134075 0:10.5345 0:-0.191536 0:-0.0383072 0:10.2951 0:-0.316035 0:-0.11971 0:10.386 0:-0.282516 0:-0.105345 0:10.5345 0:-0.320823 0:-0.110133 0:10.3669 0:-0.368707 0:-0.167594 0:10.3908 0:-0.378284 0:-0.0670377 0:10.41 0:-0.325611 0:-0.100556 0:10.5058 
16.425472284378905 0.0 0:3.29442 0:-0.632069 0:9.83538 0:3.39977 0:-0.847547 0:10.0844 0:3.35188 0:-0.948104 0:9.75877 0:3.50511 0:-1.47962 0:9.62469 0:3.33752 0:-2.01113 0:9.61511 0:3.05979 0:-2.39899 0:9.67258 0:3.49553 0:-3.16035 0:9.10276 0:3.72538 0:-3.27527 0:9.00699 0:3.81157 0:-2.29843 0:9.13148 0:3.65355 0:-1.31681 0:9.87848 0:3.55778 0:-0.397437 0:9.99819 0:3.76847 0:0.378284 0:9.37091 0:3.89297 0:1.41258 0:9.42837 0:4.23295 0:0.47884 0:9.46189 0:4.54419 0:-0.550666 0:8.85855 0:4.88896 0:-1.62806 0:8.73884 0:5.05655 0:-1.64242 0:8.87291 0:4.85544 0:-2.03028 0:8.81545 0:5.14753 0:-3.12683 0:8.33661 0:4.9943 0:-3.29442 0:8.36055 0:4.90811 0:-2.53307 0:9.36612 0:5.12359 0:-3.74932 0:8.73405 0:5.45878 0:-5.20021 0:7.04853 0:5.39653 0:-6.22492 0:5.48272 0:5.85622 0:-6.46913 0:3.83551 
8.563385499935142 9.047552537056191 0:6.06691 0:-7.25443 0:2.70545 0:6.10521 0:-7.56568 0:1.55144 0:6.12437 0:-7.41724 0:1.92494 0:5.91847 0:-6.8953 0:3.47159 0:5.68862 0:-6.95755 0:4.42448 0:5.52582 0:-6.14831 0:5.42526 0:5.45399 0:-4.72137 0:7.72848 0:4.95121 0:-3.90734 0:9.16022 0:4.63517 0:-3.66313 0:8.68616 0:4.45322 0:-2.71981 0:9.0836 0:4.18985 0:-2.36547 0:9.04529 0:4.31914 0:-1.89621 0:9.26077 0:4.26647 0:-1.72383 0:8.98305 0:4.02226 0:-1.6089 0:9.33739 0:4.38139 0:-1.62327 0:9.21289 0:4.27604 0:-1.7334 0:9.49062 0:4.48195 0:-1.59933 0:8.90643 0:4.35745 0:-1.45567 0:9.33739 0:4.43406 0:-1.11091 0:9.18416 0:4.75488 0:-0.517148 0:8.66701 0:4.52504 0:-0.536301 0:9.52413 0:4.49152 0:-0.229843 0:9.26077 0:4.45322 0:-0.373495 0:9.36133 0:4.34787 0:-0.636858 0:9.56244 0:4.05099 0:-0.47884 0:9.55287 
5.669133003878464 0.0 0:3.47638 0:-0.512359 0:9.88326 0:2.72939 0:-0.560243 0:10.0987 0:1.84832 0:-0.234632 0:10.2711 0:1.91536 0:-0.186748 0:10.1658 0:1.92494 0:-0.560243 0:10.3046 0:2.74854 0:-0.368707 0:9.79228 0:2.62405 0:-0.3304 0:10.07 0:2.69587 0:-0.229843 0:10.0078 0:2.85389 0:-0.153229 0:9.95509 0:2.83952 0:-0.258574 0:10.1466 0:2.98796 0:-0.191536 0:9.97903 0:2.8922 0:-0.129287 0:9.98382 0:2.86347 0:-0.272939 0:9.89284 0:3.10289 0:-0.186748 0:9.91678 0:3.02148 0:-0.258574 0:10.0892 0:2.98318 0:-0.363919 0:9.89284 0:3.08852 0:-0.383072 0:10.0461 0:3.22738 0:-0.143652 0:10.0221 0:3.07894 0:-0.186748 0:9.75398 0:3.16035 0:-0.129287 0:9.98382 0:3.10767 0:-0.167594 0:10.0078 0:3.07416 0:-0.229843 0:9.93594 0:3.06937 0:-0.234632 0:10.0126 0:3.40455 0:-0.47884 0:6.92403 0:1.86748 0:-1.33118 0:7.09162 
10.901954888283754 0.0 0:3.03106 0:-1.57538 0:9.85932 0:1.81002 0:-1.81002 0:13.1011 0:3.6344 0:-2.47082 0:8.98305 0:0.78051 0:-2.59053 0:10.1371 0:0.818817 0:-2.55701 0:10.1083 0:1.72861 0:-2.50434 0:9.72046 0:2.33195 0:-2.35111 0:9.02614 0:3.96959 0:-1.09654 0:9.00699 0:5.00388 0:-0.574608 0:9.22246 0:4.46279 0:-0.612916 0:9.96467 0:3.77805 0:-0.794875 0:9.62469 0:3.81636 0:-0.474052 0:9.59117 0:3.87382 0:-0.761356 0:9.82101 0:4.07493 0:-1.37427 0:10.2807 0:4.50589 0:-2.8922 0:9.27993 0:5.44441 0:-3.72538 0:7.27358 0:6.2345 0:-4.64954 0:4.53941 0:6.97192 0:-5.79876 0:3.40455 0:7.32626 0:-5.60243 0:3.36625 0:7.52737 0:-6.02381 0:2.6432 0:7.37893 0:-6.01423 0:2.48039 0:7.12036 0:-5.33907 0:4.0462 0:6.61278 0:-4.53941 0:6.12437 0:5.53061 0:-4.13239 0:8.22648 0:5.16669 0:-4.01268 0:8.47547 
5.923493705923279 20.571508311621834 0:4.34308 0:-2.48997 0:9.09797 0:3.97437 0:-1.97761 0:9.54808 0:3.65355 0:-1.21147 0:9.89284 0:3.32794 0:-0.727837 0:9.5385 0:3.08852 0:-1.10612 0:9.84975 0:3.07894 0:-1.06303 0:9.94551 0:3.04064 0:-1.01035 0:9.84017 0:3.1364 0:-0.957681 0:9.7444 0:2.99275 0:-1.08697 0:9.78271 0:3.08373 0:-1.00078 0:9.72046 0:3.13162 0:-1.02472 0:9.84017 0:3.21781 0:-1.04866 0:9.76356 0:3.304 0:-0.905008 0:9.84975 0:3.23217 0:-0.952892 0:9.85453 0:3.28484 0:-0.957681 0:9.76356 0:3.18908 0:-0.885855 0:9.64385 0:3.25133 0:-0.881066 0:9.81623 0:3.2609 0:-0.847547 0:9.92157 0:3.26569 0:-0.866701 0:9.93594 0:3.27048 0:-0.876278 0:9.73004 0:3.25611 0:-0.71826 0:9.88326 0:3.43329 0:-0.703895 0:9.79707 0:3.61524 0:-0.502782 0:9.83059 0:3.80678 0:-0.196325 0:9.57681 0:4.43406 0:-0.895431 0:9.81623 
10.035145803560816 10.8193012630453 0:5.13796 0:-1.84354 0:8.57124 0:4.52504 0:-2.6001 0:9.165 0:4.52504 0:-3.45723 0:8.35098 0:5.51624 0:-3.43807 0:7.95354 0:5.29597 0:-3.67271 0:7.95833 0:5.30555 0:-3.41413 0:8.34619 0:4.87938 0:-3.49553 0:8.52815 0:4.95121 0:-3.47638 0:8.60955 0:5.05177 0:-3.52905 0:8.06367 0:5.27682 0:-2.98796 0:8.72447 0:6.10521 0:-2.53785 0:7.81467 0:5.93283 0:-1.56102 0:9.66779 0:5.84664 0:-1.94888 0:6.65588 0:5.90889 0:-2.28407 0:8.73884 0:4.65433 0:-2.19788 0:9.57681 0:6.6463 0:-1.61848 0:7.91523 0:0.756568 0:-2.41814 0:9.7875 0:3.04064 0:-2.37505 0:9.92157 0:2.43251 0:-2.58574 0:9.85453 0:1.63285 0:-2.87783 0:9.67736 0:0.986411 0:-2.82995 0:10.4196 0:0.804452 0:-2.75333 0:9.86411 0:0.641646 0:-2.806 0:9.96467 0:0.981623 0:-2.70066 0:9.88326 0:0.967257 0:-3.10767 0:9.88805 
4.089977927115096 0.6615837198817689 0:2.17394 0:-3.24654 0:10.0556 0:3.16992 0:-3.45244 0:9.39485 0:4.42448 0:-4.11324 0:7.99184 0:6.0717 0:-5.35822 0:4.98473 0:6.3159 0:-6.51702 0:3.90734 0:5.83706 0:-7.60398 0:3.07894 0:6.09085 0:-7.50822 0:2.54743 0:5.93283 0:-7.3502 0:2.65278 0:5.88016 0:-6.89051 0:3.57694 0:6.09564 0:-6.00945 0:4.33829 0:5.93762 0:-4.77883 0:6.34463 0:5.72693 0:-4.05578 0:7.95354 0:5.4923 0:-3.11246 0:8.1738 0:4.68306 0:-2.46603 0:9.22246 0:5.26246 0:-2.13084 0:8.84897 0:4.86023 0:-1.20668 0:8.50421 0:4.76446 0:-1.16358 0:8.9591 0:4.27604 0:-0.981623 0:9.64385 0:3.89776 0:-1.09654 0:9.70609 0:3.69186 0:-0.847547 0:9.47625 0:3.65834 0:-0.871489 0:9.7013 0:3.64398 0:-0.943315 0:9.73961 0:3.54821 0:-0.80924 0:9.66779 0:3.56736 0:-0.881066 0:9.58638 0:3.50511 0:-0.71826 0:9.82101 
100.0 0.0 0:3.56257 0:-0.828394 0:9.66779 0:3.63919 0:-0.857124 0:9.69173 0:3.63919 0:-0.871489 0:9.55765 0:3.63919 0:-0.823605 0:9.72046 0:3.58173 0:-0.837971 0:9.52413 0:3.50511 0:-0.92895 0:9.71567 0:3.62961 0:-0.785298 0:9.64385 0:3.28484 0:-0.80924 0:9.7013 0:3.39498 0:-0.713472 0:9.62948 0:3.38061 0:-0.823605 0:9.72525 0:3.32794 0:-0.794875 0:9.75398 0:3.25611 0:-0.71826 0:9.81623 0:3.25611 0:-0.770933 0:9.8258 0:3.304 0:-0.852336 0:9.88805 0:3.15556 0:-0.804452 0:9.89284 0:3.17471 0:-0.794875 0:9.84496 0:3.27048 0:-0.694318 0:9.91678 0:3.22738 0:-0.756568 0:9.86411 0:3.09331 0:-0.742202 0:9.88805 0:3.18429 0:-0.746991 0:9.73004 0:3.13162 0:-0.871489 0:9.83538 0:3.13162 0:-0.78051 0:9.86411 0:3.12683 0:-0.770933 0:9.96467 0:3.1364 0:-0.756568 0:9.97903 0:3.28006 0:-0.861913 0:9.41879 
1.5441247164325462 0.0 0:3.44286 0:-0.799663 0:9.82101 0:3.50032 0:-0.890643 0:9.84496 0:3.43329 0:-0.742202 0:9.71567 0:3.31836 0:-0.823605 0:9.8689 0:3.69665 0:-0.584185 0:10.41 0:4.3766 0:-1.76213 0:9.77313 0:5.54976 0:-3.37582 0:7.23528 0:6.45477 0:-4.92727 0:4.9129 0:7.10599 0:-5.89931 0:3.5099 0:7.21134 0:-5.9041 0:1.42216 0:7.51779 0:-6.04296 0:2.61926 0:7.50343 0:-5.95677 0:2.24097 0:7.21134 0:-5.23851 0:3.46202 0:7.62793 0:-4.07972 0:5.20021 0:7.51779 0:-2.94487 0:6.77559 0:6.90009 0:-2.27928 0:7.53216 0:6.359 0:-1.95367 0:8.12113 0:5.79876 0:-1.40779 0:8.33182 0:4.52983 0:-0.881066 0:10.3382 0:4.19943 0:-0.948104 0:10.0078 0:3.7589 0:-0.344765 0:9.60075 0:3.55778 0:0.0574608 0:9.75398 0:3.37582 0:-0.694318 0:9.96946 0:3.79242 0:-1.70946 0:9.24641 0:3.83551 0:-1.24498 0:9.50498 
71.17335421769737 61.68741852795549 0:3.58651 0:-1.23062 0:9.75398 0:3.17471 0:-1.26414 0:9.84017 0:3.04542 0:-1.44131 0:9.97424 0:2.92093 0:-1.43652 0:9.88805 0:2.75812 0:-1.46046 0:9.89763 0:2.80122 0:-1.35033 0:9.89284 0:2.77249 0:-1.46046 0:10.1323 0:2.78206 0:-1.34554 0:9.93594 0:2.80122 0:-1.5275 0:9.88326 0:2.74854 0:-1.46525 0:9.96467 0:2.82516 0:-1.17795 0:9.97903 0:2.70545 0:-1.24977 0:9.89284 0:2.65278 0:-1.20189 0:9.85453 0:2.66235 0:-1.23541 0:9.80665 0:2.66235 0:-1.06781 0:9.95988 0:2.6001 0:-1.05345 0:10.0365 0:2.83952 0:-0.905008 0:10.0221 0:2.85868 0:-0.914585 0:10.0365 0:2.71024 0:-1.0726 0:10.0461 0:2.80122 0:-0.919373 0:9.95509 0:2.69108 0:-0.948104 0:9.9934 0:2.71024 0:-0.976834 0:9.95509 0:2.75333 0:-0.933739 0:10.1227 0:2.86347 0:-1.02472 0:10.0269 0:2.68629 0:-0.9912 0:9.94551 
1.70153782233351 1.363230113319651 0:2.79164 0:-0.842759 0:9.90721 0:2.73897 0:-0.881066 0:9.9503 0:3.07416 0:-0.871489 0:9.93594 0:3.06458 0:-0.622492 0:9.81623 0:3.19865 0:-0.555455 0:9.84975 0:3.2609 0:-0.555455 0:9.86411 0:3.1795 0:-0.488417 0:9.95509 0:3.12204 0:-0.392649 0:9.97424 0:2.93529 0:-0.608127 0:10.2999 0:3.304 0:-1.06781 0:10.5489 0:4.20901 0:-2.06859 0:9.10754 0:5.52582 0:-3.20823 0:7.01022 0:6.59842 0:-4.58729 0:5.43484 0:7.3071 0:-5.25767 0:4.00789 0:7.32626 0:-6.10043 0:3.60088 0:7.01501 0:-6.06691 0:3.28484 0:7.11078 0:-5.30076 0:3.96959 0:7.09162 0:-5.78918 0:4.24731 0:6.29196 0:-4.20901 0:6.19619 0:5.99508 0:-3.52905 0:8.07325 0:5.33428 0:-3.11725 0:8.82024 0:4.40054 0:-1.86748 0:9.74919 0:3.87382 0:-1.70467 0:9.4954 0:3.16992 0:-0.191536 0:10.2855 0:3.60088 0:-0.708684 0:9.73482 
36.528419968790345 0.0 0:3.19865 0:-0.751779 0:10.0413 0:3.06458 0:-1.0726 0:9.88805 0:3.23217 0:-1.01514 0:9.75398 0:3.05979 0:-0.852336 0:9.7875 0:3.24175 0:-1.00078 0:9.90721 0:2.95923 0:-0.90022 0:9.91199 0:2.94487 0:-0.986411 0:10.07 0:2.82516 0:-0.890643 0:10.0844 0:2.9305 0:-0.981623 0:10.0365 0:2.90177 0:-0.981623 0:9.91199 0:2.83473 0:-1.10612 0:9.95988 0:2.86347 0:-1.01993 0:9.9503 0:2.91614 0:-1.04387 0:10.0604 0:2.806 0:-0.995988 0:9.94551 0:2.92571 0:-1.0726 0:10.0078 0:2.81558 0:-1.13964 0:9.87369 0:2.80122 0:-1.05824 0:10.1418 0:2.75333 0:-1.12049 0:10.0461 0:2.84431 0:-0.967257 0:9.81144 0:2.77727 0:-0.962469 0:9.97903 0:2.71024 0:-1.0343 0:10.0317 0:2.75812 0:-1.08697 0:9.87848 0:2.7246 0:-1.04387 0:9.85932 0:2.75812 0:-1.08218 0:9.89284 0:2.71502 0:-1.0343 0:10.1849 
-37.48803080809464 10.138350454269524 0:4.04141 0:-1.70467 0:8.48505 0:4.51068 0:-1.06303 0:9.4954 0:4.39575 0:-0.9912 0:9.39485 0:4.32393 0:-0.287304 0:11.0947 0:2.51391 0:-3.54342 0:9.28471 0:1.33118 0:-4.26168 0:8.73405 0:2.25055 0:-2.02549 0:10.9894 0:3.32315 0:-1.55623 0:10.1035 0:2.37505 0:-2.78685 0:9.26077 0:3.11725 0:-0.56982 0:10.1514 0:3.14598 0:-1.78607 0:11.7029 0:2.10211 0:-2.1452 0:9.62948 0:3.4285 0:-1.76692 0:10.5441 0:3.42371 0:-1.21625 0:10.5728 0:2.00634 0:-0.785298 0:10.41 0:2.51391 0:-2.03507 0:8.93037 0:4.25689 0:-1.42694 0:11.0899 0:1.95846 0:-1.98719 0:9.03572 0:2.57616 0:-0.296881 0:8.87291 0:3.74453 0:-1.4461 0:10.975 0:0.794875 0:1.05345 0:10.4148 0:1.15401 0:-3.25611 0:8.45153 0:3.61046 0:-1.82917 0:10.1706 0:0.684742 0:-2.08296 0:9.05008 0:2.21703 0:-0.919373 0:8.59997 
-57.17339824750426 9.458911297217071 0:4.31914 0:-0.0526724 0:10.8984 0:2.61447 0:-0.608127 0:7.97269 0:3.04542 0:-1.45089 0:10.0892 0:3.92649 0:-1.13006 0:11.133 0:2.63362 0:-1.78129 0:9.01656 0:5.09486 0:-0.272939 0:9.25598 0:4.84108 0:0.732626 0:9.02614 0:5.6551 0:-0.114922 0:8.06367 0:4.458 0:0.158017 0:8.45153 0:5.55934 0:0.105345 0:10.2041 0:3.80678 0:-1.46046 0:8.15465 0:5.54976 0:-0.0287304 0:9.63427 0:5.6168 0:-0.78051 0:11.2623 0:4.42448 0:-1.58975 0:9.55765 0:3.40455 0:-1.10133 0:8.23605 0:5.96635 0:-1.31681 0:9.7013 0:3.55778 0:-1.69988 0:8.65743 0:4.98952 0:-1.09654 0:9.99819 0:4.77883 0:-1.51314 0:10.1801 0:4.03184 0:-2.39899 0:9.01178 0:3.73495 0:-2.3128 0:8.36534 0:4.81235 0:-1.81002 0:9.61033 0:3.43329 0:-2.33195 0:9.56244 0:4.66869 0:-1.96325 0:9.04529 0:5.26724 0:-2.47082 0:10.5489 
-47.00166575504558 6.268834001929668 0:3.83551 0:-1.24977 0:8.84418 0:4.23774 0:-1.56581 0:9.85453 0:4.43406 0:-2.26013 0:9.76356 0:2.50912 0:-1.0343 0:7.00065 0:4.32393 0:-1.10133 0:10.5441 0:3.98874 0:-0.349553 0:9.02135 0:3.41413 0:-1.77171 0:8.65264 0:3.69186 0:-1.93451 0:9.54808 0:3.98874 0:-1.89142 0:10.2999 0:3.38061 0:-1.04866 0:8.28873 0:4.90332 0:-1.75256 0:11.0708 0:3.28963 0:-0.952892 0:9.7444 0:3.32794 0:-2.14042 0:8.37013 0:4.19464 0:-1.50356 0:9.87369 0:3.28484 0:-1.7765 0:9.5816 0:2.94966 0:-2.02549 0:8.56645 0:6.78517 0:-1.75734 0:10.3142 0:3.93607 0:-1.18274 0:9.46667 0:3.56257 0:-1.13485 0:8.04452 0:3.88818 0:-0.292093 0:11.4108 0:3.10767 0:-2.83952 0:8.67659 0:3.53863 0:-1.45567 0:8.94953 0:5.00388 0:-1.86748 0:11.4682 0:4.6256 0:-2.1452 0:8.99262 0:3.1364 0:-1.0343 0:7.86735 
-24.855068146695903 1.0027428746602607 0:3.24175 0:-2.77249 0:10.4196 0:2.96881 0:-1.13006 0:8.18817 0:5.03261 0:-0.263362 0:11.1761 0:3.16513 0:-0.80924 0:9.36133 0:2.88741 0:-1.68552 0:8.29351 0:4.87938 0:-1.10612 0:9.43315 0:2.54264 0:-3.24175 0:9.52892 0:4.58729 0:-2.24576 0:9.10276 0:5.50666 0:-2.78206 0:11.224 0:3.80199 0:-2.35111 0:9.0022 0:4.06535 0:-1.18752 0:8.61434 0:4.68785 0:-2.31759 0:11.9662 0:3.30879 0:-1.57538 0:7.45554 0:4.23295 0:-1.20189 0:9.37091 0:4.90332 0:-1.01993 0:10.4531 0:2.78685 0:-1.39343 0:8.68616 0:4.00789 0:-1.24977 0:9.90242 0:4.04141 0:-3.41413 0:9.9503 0:3.00712 0:-2.13563 0:6.81869 0:5.11401 0:-1.92973 0:9.5816 0:5.51145 0:-1.01993 0:9.67736 0:3.37104 0:-1.29766 0:8.54251 0:3.55778 0:-0.861913 0:9.97903 0:4.68306 0:-2.03986 0:10.4148 0:2.47082 0:-1.35991 0:7.37414 
-51.513711784691075 5.961977377581029 0:5.04219 0:-0.54109 0:11.2671 0:3.1795 0:-1.27372 0:10.2041 0:3.44286 0:-1.19231 0:9.34696 0:4.55377 0:-0.047884 0:10.4196 0:2.30322 0:-2.59531 0:8.89685 0:3.99832 0:-1.15879 0:9.62948 0:4.29041 0:-1.13485 0:11.2719 0:3.1364 0:-0.914585 0:10.8697 0:3.11246 0:-1.26893 0:9.10754 0:3.07416 0:-1.67594 0:12.3637 0:2.97839 0:-1.92015 0:8.51857 0:4.11803 0:-1.36948 0:9.50498 0:4.75967 0:-0.45011 0:12.2104 0:2.92571 0:-1.18752 0:8.25042 0:4.24253 0:-1.47004 0:8.53772 0:5.03261 0:-2.98318 0:11.5496 0:3.9648 0:-1.86269 0:7.54174 0:3.62003 0:-1.18752 0:9.07402 0:5.97114 0:-0.454898 0:10.999 0:3.66792 0:-1.91536 0:8.14029 0:4.4197 0:-1.47962 0:7.64708 0:5.68862 0:-2.02549 0:9.60554 0:3.3854 0:-1.58017 0:8.19775 0:4.29999 0:-1.24498 0:10.4674 0:5.02304 0:-0.885855 0:8.98783 
-43.067195693619865 13.786327654908257 0:3.15077 0:-1.35033 0:8.85855 0:4.86502 0:-1.48919 0:9.80665 0:2.18351 0:-2.66714 0:9.11712 0:3.67271 0:-2.14999 0:8.31267 0:5.16669 0:-0.933739 0:10.5584 0:3.17471 0:-0.459687 0:9.69173 0:3.16035 0:-1.72383 0:7.98706 0:5.00388 0:-1.58975 0:11.1043 0:2.28407 0:-2.67193 0:9.87369 0:2.46603 0:-1.71425 0:9.414 0:4.53941 0:-0.957681 0:10.3573 0:3.9217 0:-0.78051 0:10.252 0:2.73418 0:-2.02549 0:9.08839 0:3.72059 0:-1.15879 0:10.0652 0:2.19309 0:-2.28407 0:9.90242 0:2.48039 0:-0.823605 0:9.41879 0:3.54821 0:-1.29287 0:12.2727 0:2.86825 0:-1.87227 0:9.37091 0:2.40857 0:-2.48518 0:7.02938 0:4.53941 0:-1.22583 0:10.75 0:2.29843 0:-2.99275 0:9.50498 0:3.36625 0:-3.67271 0:10.2185 0:5.22894 0:-0.56982 0:11.1043 0:3.19387 0:-1.35991 0:8.81066 0:3.68707 0:-1.55623 0:8.54251 
-23.371497423962648 9.891014097982476 0:3.26569 0:-2.3942 0:9.40921 0:2.48518 0:-1.00556 0:8.04931 0:4.95121 0:-1.58496 0:10.9607 0:2.50912 0:-0.9912 0:9.48104 0:2.83473 0:-2.26491 0:8.74362 0:4.46758 0:-1.06781 0:9.96467 0:1.62327 0:-2.51391 0:9.09797 0:3.53384 0:-2.13084 0:9.91678 0:4.56814 0:-1.03908 0:10.5489 0:1.61848 0:-2.94487 0:11.1809 0:2.82995 0:-2.23618 0:8.33182 0:3.48117 0:-1.65679 0:10.3046 0:1.47962 0:-3.31358 0:9.68694 0:2.83952 0:-2.63362 0:9.51935 0:4.13239 0:-1.13485 0:10.2568 0:2.87304 0:-2.12126 0:10.568 0:1.86748 0:-1.55144 0:8.0924 0:2.89698 0:-1.90578 0:11.4778 0:1.70467 0:-2.36068 0:8.59518 0:3.09331 0:-1.82438 0:10.2951 0:3.0981 0:-1.35991 0:10.4962 0:3.10289 0:-1.63285 0:9.20331 0:2.81079 0:-1.5275 0:9.03572 0:2.83952 0:-2.71024 0:12.3158 0:2.3942 0:-1.89142 0:7.31189 
-5.4189539049480455 8.168958145569052 0:4.60166 0:-1.38385 0:11.2719 0:2.55222 0:-1.40779 0:10.1371 0:2.49955 0:-2.25534 0:8.78672 0:3.41413 0:-1.05824 0:10.5393 0:2.07817 0:-2.95923 0:9.82101 0:2.73897 0:-2.47082 0:9.56723 0:4.55377 0:-1.47962 0:10.7548 0:2.59531 0:-1.76213 0:10.319 0:2.37026 0:-1.7765 0:8.14029 0:3.5913 0:-2.61926 0:10.9271 0:1.5706 0:-2.38463 0:9.48583 0:3.055 0:-3.14598 0:10.0078 0:4.28562 0:-2.20267 0:11.6693 0:3.0981 0:-2.10211 0:9.90242 0:3.29921 0:-1.67115 0:8.69574 0:3.39019 0:-2.05423 0:11.3964 0:2.12605 0:-0.80924 0:8.25999 0:3.82115 0:-0.143652 0:10.2041 0:3.72538 0:0.981623 0:9.94551 0:2.64799 0:0.981623 0:8.40844 0:1.09176 0:-0.272939 0:11.497 0:1.28329 0:-0.986411 0:10.3573 0:0.593762 0:1.20189 0:7.11078 0:0.804452 0:3.70144 0:6.70376 0:-1.00078 0:9.28471 0:7.17303 
-0.0 0.14340439933508256 0:-3.71101 0:8.5473 0:1.36948 0:-4.76446 0:9.50019 0:1.62327 0:-4.49152 0:8.93516 0:0.0622492 0:-3.47159 0:6.05254 0:-0.368707 0:-2.15478 0:7.92481 0:0.464475 0:-5.31034 0:12.8233 0:3.07416 0:-3.15077 0:7.48906 0:1.97282 0:-2.75812 0:10.3908 0:1.4461 0:-5.30555 0:8.41801 0:1.36469 0:-0.938527 0:9.98861 0:0.11971 0:-3.95522 0:7.76679 0:0.474052 0:-2.98796 0:7.05332 0:0.871489 0:-6.09564 0:10.0221 0:0.512359 0:-2.90177 0:8.03015 0:0.258574 0:-5.31513 0:9.78271 0:1.94409 0:-2.40857 0:6.19141 0:1.23541 0:-6.66546 0:10.4004 0:-0.579397 0:-3.00712 0:7.76679 0:0.311246 0:-2.85389 0:10.884 0:3.7589 0:-2.19788 0:6.08127 0:3.10767 0:-2.39899 0:8.49463 0:2.25534 0:-9.01656 0:10.6063 0:1.23541 0:-2.48518 0:6.28717 0:0.866701 0:-3.03585 0:11.6406 0:4.07972 0:-5.84664 0:7.11557 0:2.33674 
-0.0 0.4642105396633408 0:-4.39097 0:10.8649 0:1.10612 0:-3.21302 0:9.16979 0:1.00556 0:-1.80523 0:9.05966 0:2.37505 0:-5.44441 0:12.2583 0:2.22661 0:-3.57215 0:8.23127 0:1.31202 0:0.253785 0:7.89129 0:3.72059 0:2.57137 0:8.02536 0:6.69898 0:2.12605 0:5.77003 0:5.84185 0:1.88663 0:7.33105 0:7.11557 0:1.8579 0:8.05888 0:6.29196 0:0.847547 0:5.78439 0:4.59208 0:0.172383 0:9.60554 0:4.75488 0:-2.74854 0:10.8026 0:2.90177 0:-2.13563 0:7.77637 0:2.04944 0:-3.5913 0:11.2719 0:2.68629 0:-4.29041 0:9.41879 0:0.656011 0:-3.26569 0:7.46512 0:0.651223 0:-3.87861 0:10.3286 0:1.46525 0:-3.0981 0:10.2807 0:1.74777 0:-1.54187 0:8.30309 0:2.22182 0:-4.81713 0:10.568 0:1.79565 0:-3.18908 0:9.21289 0:2.25534 0:-4.40533 0:7.41724 0:0.766145 0:-5.08528 0:12.0045 0:1.61369 0:-2.68629 0:8.42759 0:1.56581 
-0.0 0.10987717885466335 0:-6.1531 0:7.68539 0:0.828394 0:-5.01346 0:12.0428 0:2.22661 0:-2.87304 0:9.98382 0:2.14042 0:-5.51624 0:8.13071 0:2.25534 0:-5.75087 0:9.16022 0:2.49476 0:-5.81312 0:8.20732 0:2.16915 0:-3.49075 0:7.32147 0:2.16915 0:-2.74376 0:11.7843 0:3.45244 0:-4.3335 0:10.1658 0:3.35667 0:-1.66636 0:9.51456 0:4.26647 0:-4.97994 0:10.6734 0:5.49709 0:-1.09654 0:6.56011 0:5.63595 0:2.2314 0:2.78206 0:6.66067 0:5.59764 0:2.63841 0:9.12191 0:3.53384 0:3.06458 0:7.83862 0:3.74453 0:3.65355 0:6.48829 0:1.84832 0:8.77714 0:6.26802 0:-0.148441 0:8.50899 0:3.24654 0:-2.97839 0:11.6789 0:4.40533 0:-2.70066 0:10.4387 0:3.98874 0:-3.27048 0:7.20655 0:1.9824 0:-5.02782 0:9.57681 0:3.08373 0:-5.97114 0:8.47069 0:0.881066 0:-3.59609 0:6.82826 0:0.737414 0:-2.92093 0:11.4539 0:1.90578 
-0.0 0.6815521717300389 0:-6.19141 0:9.8258 0:-0.842759 0:-3.76847 0:9.9503 0:0.866701 0:-7.41724 0:8.55688 0:2.28886 0:-7.11557 0:7.20176 0:2.28407 0:-6.41167 0:7.02938 0:1.13006 0:-6.63194 0:7.61835 0:-0.100556 0:-6.87136 0:8.68138 0:-0.0718261 0:-5.82749 0:9.44273 0:0.555455 0:-5.51624 0:8.99741 0:0.924162 0:-8.03015 0:7.42681 0:2.0638 0:-5.92326 0:6.82826 0:1.91536 0:-7.87214 0:7.8051 0:-0.268151 0:-6.57448 0:7.32147 0:-0.23942 0:-6.2776 0:8.12113 0:-0.268151 0:-6.51223 0:8.2169 0:0.756568 0:-6.36379 0:8.27436 0:2.07817 0:-5.16669 0:8.06846 0:2.69108 0:-5.39174 0:12.7228 0:1.98719 0:-1.14922 0:8.87291 0:6.49308 0:0.292093 0:3.21781 0:7.66145 0:1.49398 0:0.536301 0:8.37013 0:3.16992 0:-0.890643 0:10.3142 0:1.42694 0:-1.42694 0:9.65342 0:1.82917 0:-1.68073 0:9.51456 0:2.48518 0:-1.22583 0:10.8649 
-0.0 1.4891377366326297 0:1.8579 0:-0.349553 0:10.4339 0:3.28963 0:-1.12049 0:9.62469 0:3.66792 0:-0.9912 0:10.1418 0:3.90255 0:-0.723049 0:9.165 0:2.75333 0:-1.18752 0:8.22169 0:2.58095 0:1.02951 0:9.73961 0:0.531513 0:3.53384 0:10.8218 0:-0.311246 0:7.23528 0:5.61201 0:-1.84354 0:9.5816 0:4.69742 0:-4.67348 0:12.9335 0:2.36068 0:-2.74854 0:8.8346 0:1.17795 0:-3.96959 0:8.57603 0:1.83396 0:-5.78918 0:7.86256 0:0.574608 0:-4.86981 0:7.99184 0:-0.0287304 0:-4.24253 0:8.25999 0:0.234632 0:-4.75488 0:10.8457 0:1.22583 0:-4.86981 0:8.8346 0:0.656011 0:-4.86502 0:8.82503 0:1.9824 0:-5.88974 0:8.22169 0:1.73819 0:-6.63194 0:6.63194 0:0.138864 0:-6.9384 0:8.01579 0:0.588974 0:-6.18183 0:10.1035 0:0.847547 0:-5.12359 0:9.48583 0:0.866701 0:-6.75165 0:8.59997 0:1.85311 0:-6.31112 0:7.23528 0:1.63763 
-0.3780609372754836 0.8651512825122218 0:-6.77559 0:7.11078 0:1.59454 0:-6.92403 0:8.04931 0:1.18274 0:-5.77003 0:9.92157 0:1.09654 0:-5.45399 0:11.0325 0:0.646435 0:-5.32949 0:9.72046 0:2.10211 0:-7.1012 0:7.57047 0:2.52349 0:-6.8139 0:8.25999 0:1.09176 0:-5.48272 0:8.82024 0:1.37427 0:-5.26246 0:9.73961 0:1.75734 0:-5.72214 0:11.5448 0:0.857124 0:-4.03662 0:9.63427 0:2.49955 0:-6.99107 0:11.2001 0:3.95522 0:-3.22738 0:9.14106 0:5.06134 0:1.35512 0:3.10767 0:6.04296 0:3.54342 0:1.01993 0:9.26077 0:4.85065 0:0.301669 0:10.1227 0:3.24654 0:2.19788 0:9.7444 0:3.15556 0:1.3216 0:9.10276 0:3.25133 0:1.59454 0:11.4012 0:2.79164 0:1.97282 0:8.81545 0:3.60088 0:0.794875 0:9.24641 0:3.74453 0:-0.0287304 0:11.4203 0:2.13084 0:1.16358 0:9.65342 0:2.36068 0:0.555455 0:9.30387 0:2.72939 0:0.392649 0:11.5496 
-24.05113943124125 15.012911728236887 0:1.72383 0:0.320823 0:9.0022 0:2.96881 0:0.565032 0:11.0804 0:3.01669 0:0.0335188 0:9.66779 0:1.56102 0:0.225055 0:8.6287 0:2.33674 0:0.842759 0:9.93115 0:2.83473 0:2.11647 0:10.4052 0:1.54187 0:2.58574 0:9.39006 0:2.55222 0:1.35512 0:9.99819 0:1.89142 0:3.21781 0:11.5353 0:0.11971 0:2.33195 0:9.19373 0:0.962469 0:1.58496 0:9.34218 0:1.77171 0:1.8579 0:10.7691 0:1.68552 0:2.86825 0:8.48984 0:2.34153 0:2.73897 0:10.6255 0:1.62327 0:4.11324 0:12.4546 0:0.3304 0:3.89297 0:9.64863 0:0.943315 0:2.43251 0:8.64307 0:0.818817 0:2.50912 0:11.6646 0:1.43652 0:2.88741 0:9.16022 0:1.39821 0:4.14676 0:9.50019 0:0.56982 0:6.52181 0:11.5975 0:-1.54187 0:5.10923 0:10.003 0:0.148441 0:3.2609 0:7.6375 0:1.21625 0:2.33674 0:9.77313 0:-0.3304 0:4.76446 0:10.7021 
-0.0 0.3839102233612612 0:-5.31992 0:7.93917 0:1.31681 0:-6.67982 0:9.11233 0:1.79086 0:-6.07648 0:8.78672 0:2.0638 0:-4.91769 0:7.80031 0:0.258574 0:-4.31914 0:7.89608 0:-0.627281 0:-4.97515 0:8.3414 0:0.866701 0:-5.57849 0:9.22725 0:0.943315 0:-5.25288 0:8.13071 0:1.26414 0:-4.88896 0:8.7963 0:1.13964 0:-5.37259 0:7.95833 0:0.694318 0:-6.69419 0:7.35499 0:0.158017 0:-6.21056 0:7.53216 0:0.545878 0:-5.03261 0:8.51378 0:0.56982 0:-4.74531 0:9.68694 0:-0.023942 0:-4.90332 0:10.9942 0:2.80122 0:-6.01423 0:13.5081 0:5.64553 0:-2.11169 0:3.85945 0:4.67348 0:2.27449 0:1.82438 0:7.3933 0:4.29999 0:0.201113 0:8.69574 0:5.23372 0:-0.636858 0:9.54329 0:4.31914 0:0.244209 0:10.5728 0:3.19865 0:-0.3304 0:9.27514 0:3.55778 0:-0.248997 0:9.00699 0:4.06535 0:-0.311246 0:10.9319 0:2.68151 0:0.952892 0:9.68694 
-92.83560824335736 -48.360697536263615 0:5.14274 0:-3.14598 0:8.92558 0:5.09965 0:-2.70066 0:8.7963 0:4.68306 0:-2.10211 0:8.83939 0:4.66869 0:-2.37505 0:9.08839 0:4.80756 0:-2.20745 0:9.03093 0:4.76925 0:-1.84832 0:9.15543 0:4.61602 0:-1.78129 0:9.15543 0:4.40533 0:-1.80044 0:8.89207 0:4.31435 0:-1.42216 0:8.83939 0:4.34787 0:-1.41258 0:9.17937 0:3.94086 0:-1.26414 0:9.55287 0:4.08451 0:-1.25456 0:9.27993 0:3.81636 0:-1.28329 0:9.7013 0:3.70144 0:-1.47483 0:9.27514 0:3.77326 0:-1.67115 0:9.2081 0:3.45244 0:-1.37427 0:9.23683 0:3.46202 0:-1.74298 0:8.77235 0:3.40934 0:-1.49877 0:9.07402 0:2.806 0:-1.15401 0:8.56645 0:2.40378 0:-1.10133 0:9.01656 0:1.96325 0:-1.52271 0:9.97903 0:2.57137 0:-0.617704 0:9.38527 0:2.56658 0:0.512359 0:11.1187 0:2.48039 0:-0.320823 0:10.4052 0:1.96325 0:-0.555455 0:10.0173 
-50.02979571777939 -24.375398305642737 0:0.948104 0:-1.38864 0:10.3956 0:0.675165 0:-1.50356 0:10.568 0:0.665588 0:-1.26414 0:10.7739 0:1.06781 0:-1.51792 0:11.248 0:1.09176 0:-0.23942 0:10.7308 0:0.751779 0:-0.584185 0:12.0524 0:0.526724 0:-0.876278 0:11.4778 0:-0.0957681 0:-1.28808 0:10.568 0:-0.0766145 0:-0.732626 0:11.0947 0:-0.0766145 0:-0.0861913 0:10.8074 0:0.253785 0:-0.21069 0:10.3669 0:0.641646 0:-0.172383 0:10.2663 0:0.876278 0:0.0766145 0:10.7548 0:0.948104 0:0.627281 0:11.0804 0:1.0726 0:0.766145 0:10.8936 0:1.13485 0:0.651223 0:10.1323 0:1.26414 0:0.617704 0:9.31823 0:1.48919 0:0.373495 0:9.03572 0:1.76213 0:0.871489 0:9.165 0:1.95367 0:0.392649 0:9.44273 0:2.12605 0:0.545878 0:9.38048 0:2.11169 0:0.622492 0:9.81144 0:2.52828 0:0.464475 0:10.8649 0:2.51391 0:0.746991 0:11.6262 0:2.21224 0:1.0343 0:12.2009 
-0.0 -0.7816492003382279 0:5.7413 0:4.63039 0:12.4594 0:2.40378 0:0.59855 0:6.86657 0:0.957681 0:0.751779 0:6.39252 0:5.97593 0:8.78193 0:7.513 0:-3.37104 0:1.68552 0:-1.79565 0:5.58807 0:11.2719 0:10.9702 0:1.48919 0:-2.08774 0:3.05979 0:7.92002 0:10.4627 0:9.21768 0:-3.27048 0:2.60489 0:-3.46202 0:5.31992 0:10.1179 0:12.2918 0:2.43251 0:-3.32315 0:3.85466 0:9.96946 0:7.77158 0:7.57525 0:-4.08451 0:3.41413 0:0.9912 0:4.92727 0:8.9591 0:10.8409 0:4.707 0:1.73819 0:5.61201 0:4.38618 0:11.8034 0:13.0723 0:0.177171 0:4.07014 0:2.71024 0:3.39977 0:12.718 0:9.165 0:4.65433 0:5.44441 0:4.6256 0:4.1276 0:3.55778 0:7.29753 0:6.28717 0:12.0141 0:8.74362 0:-3.3854 0:4.09408 0:-2.9736 0:7.33105 0:4.52504 0:10.7404 0:-0.565032 0:5.20499 0:8.83939 0:6.93361 0:5.97593 0:1.13006 
-0.009969360855750368 -0.7262709353265504 0:6.37336 0:11.789 0:14.2407 0:2.91135 0:-2.70545 0:3.71101 0:7.82425 0:10.1083 0:9.45231 0:-1.13485 0:3.60088 0:-2.60489 0:4.03662 0:12.1913 0:11.7795 0:4.07972 0:-1.9824 0:4.39097 0:4.29041 0:16.271 0:12.1961 0:1.81002 0:4.18028 0:-0.895431 0:0.402226 0:19.1919 0:9.11712 0:6.36379 0:1.72861 0:6.359 0:3.28006 0:15.2367 0:14.5855 0:2.90656 0:2.9305 0:-0.521936 0:-2.82516 0:18.4066 0:11.4634 0:8.32225 0:1.70467 0:4.97515 0:0.301669 0:14.9302 0:12.1242 0:4.27604 0:5.94241 0:1.05345 0:-1.72383 0:16.2518 0:9.43315 0:6.78996 0:0.339977 0:5.34386 0:2.24097 0:12.6222 0:11.5592 0:2.37505 0:4.9129 0:1.91536 0:-1.86748 0:13.9869 0:5.63595 0:6.65109 0:7.4747 0:7.48906 0:1.62327 0:9.9503 0:7.15388 0:4.35266 0:8.24084 0:6.22492 0:2.09732 0:2.85868 0:0.325611 
-0.0 -0.09916621827311219 0:6.08606 0:6.18183 0:6.13873 0:3.8403 0:3.1795 0:5.08528 0:6.05733 0:10.4818 0:9.01656 0:1.21147 0:3.72059 0:0.919373 0:3.67271 0:12.1961 0:9.70609 0:3.85466 0:4.39575 0:5.72214 0:5.66947 0:8.6287 0:11.5305 0:6.2345 0:3.14598 0:2.62883 0:-3.35667 0:13.7571 0:8.17859 0:7.72848 0:0.0718261 0:4.14197 0:1.68552 0:14.5903 0:14.935 0:2.99275 0:3.83072 0:-2.20267 0:-2.67672 0:19.7905 0:13.6805 0:5.05177 0:-1.72383 0:3.89776 0:6.4021 0:15.4282 0:14.0971 0:-0.407014 0:2.20745 0:-2.60489 0:4.38618 0:16.9749 0:8.49942 0:2.85868 0:0.268151 0:7.25443 0:9.20331 0:11.5688 0:6.5649 0:-3.10767 0:3.16035 0:-2.42293 0:4.58729 0:6.67503 0:4.93684 0:2.46603 0:6.23929 0:10.7356 0:7.11557 0:4.98952 0:1.55144 0:-2.74854 0:10.3286 0:1.36469 0:9.84975 0:2.95445 0:6.18183 
-0.4526487153803826 -0.33634191600842755 0:10.1658 0:16.2901 0:7.56568 0:-3.08852 0:1.89142 0:-1.75734 0:8.22169 0:10.1275 0:4.79319 0:4.2521 0:2.79164 0:11.2001 0:13.7475 0:8.5904 0:0.258574 0:-5.68384 0:0.459687 0:-2.98796 0:14.9398 0:10.0365 0:5.8227 0:4.707 0:3.14598 0:11.1713 0:12.2104 0:9.01656 0:-0.0143652 0:-3.90734 0:-0.727837 0:-2.2697 0:12.1003 0:5.26246 0:4.0462 0:8.15465 0:19.1871 0:13.149 0:7.75242 0:5.16669 0:-3.96001 0:-7.83862 0:23.219 0:2.53785 0:9.36133 0:0.229843 0:5.73172 0:11.0564 0:24.4161 0:7.50822 0:0.263362 0:4.99909 0:-3.20344 0:0.861913 0:11.1426 0:1.81959 0:1.45567 0:2.80122 0:10.4148 0:17.4968 0:19.0531 0:5.95199 0:-4.76925 0:3.60088 0:-4.10845 0:11.0804 0:9.05487 0:4.23774 0:4.2138 0:3.16035 0:9.96946 0:14.121 0:10.568 0:1.35033 0:-4.51546 0:-0.550666 0:-6.67982 
-0.1207184478509191 -0.2617972177562128 0:6.49786 0:-1.88184 0:6.47871 0:14.0875 0:19.0052 0:4.41491 0:-1.64721 0:-1.61369 0:-4.01747 0:8.12113 0:11.2192 0:2.71502 0:4.70221 0:-0.469264 0:6.43083 0:15.8975 0:15.1984 0:3.47159 0:-4.64954 0:1.93451 0:-3.14119 0:9.92157 0:11.066 0:1.86748 0:5.22415 0:0.71826 0:7.40766 0:13.5943 0:10.8745 0:3.12204 0:-3.83072 0:0.454898 0:-4.14676 0:10.4674 0:10.1562 0:4.29041 0:5.12359 0:3.7158 0:7.73806 0:13.3165 0:8.14029 0:0.957681 0:-6.15789 0:7.02938 0:-1.13964 0:9.97903 0:6.76123 0:7.52737 0:5.73651 0:9.72046 0:10.477 0:8.03015 0:4.01268 0:0.0718261 0:-5.78439 0:22.5821 0:4.2952 0:8.83939 0:0.636858 0:5.65032 0:7.86256 0:17.8703 0:13.1154 0:2.22182 0:1.08697 0:-1.69988 0:-1.46525 0:19.4457 0:2.90177 0:10.0987 0:-0.679953 0:5.34865 0:9.54329 0:22.0602 0:6.16746 
-0.12485704365382377 -0.007376247995241093 0:-5.18584 0:1.94888 0:-4.1707 0:14.528 0:5.98072 0:3.15556 0:6.6894 0:12.4977 0:6.55054 0:9.23204 0:4.97036 0:1.34075 0:-5.56412 0:14.9398 0:0.296881 0:11.5688 0:1.80044 0:6.02381 0:8.81066 0:18.3444 0:8.86812 0:3.39498 0:3.58173 0:-1.46525 0:-2.60968 0:22.8934 0:4.33829 0:9.84017 0:-0.881066 0:4.707 0:7.90087 0:22.041 0:8.23127 0:0.665588 0:3.58173 0:-3.66792 0:0.234632 0:20.1735 0:4.55856 0:6.34463 0:-1.06303 0:5.76524 0:12.3876 0:19.3739 0:9.15543 0:-1.35991 0:1.35033 0:-3.47159 0:3.00712 0:15.7108 0:4.9129 0:6.84263 0:-4.2952 0:9.70609 0:11.5784 0:19.235 0:4.69742 0:-2.77727 0:1.15879 0:-3.16035 0:15.4809 0:13.2399 0:5.53061 0:2.12605 0:-3.02148 0:6.75644 0:18.7227 0:14.5424 0:4.97994 0:-5.34865 0:4.93684 0:-3.55778 0:14.1449 0:6.19619 0:3.41892 
-0.553583382012165 -0.6120246907869433 0:8.06367 0:19.1632 0:10.5967 0:2.67672 0:3.3854 0:-1.53708 0:-2.13084 0:25.4695 0:3.31358 0:6.76601 0:-6.41167 0:7.89608 0:10.4627 0:21.7154 0:7.35499 0:-0.909797 0:2.20267 0:-4.5011 0:1.90578 0:22.5965 0:6.70855 0:4.84108 0:-4.44843 0:7.74285 0:14.0875 0:19.5367 0:6.00466 0:-0.306458 0:1.72861 0:-3.01191 0:8.97826 0:8.34619 0:10.9942 0:6.01423 0:-6.09085 0:6.50744 0:8.71489 0:5.12359 0:10.8362 0:-0.0047884 0:3.97437 0:2.25534 0:4.92727 0:4.10845 0:11.5448 0:2.4373 0:-4.02226 0:12.1194 0:9.90242 0:10.3669 0:6.78996 0:-3.58651 0:2.85868 0:-1.82438 0:9.22725 0:7.79073 0:8.85855 0:6.8139 0:1.12049 0:12.3637 0:9.29908 0:9.16022 0:4.16112 0:-2.34632 0:3.09331 0:1.32639 0:8.3414 0:-0.320823 0:10.5345 0:4.45322 0:-3.21781 0:13.8529 0:3.60567 0:3.53863 0:6.19619 
-0.42089961140552934 -0.06718336168821874 0:4.80277 0:5.14753 0:17.6884 0:5.30076 0:-4.98952 0:7.93438 0:3.2226 0:3.98874 0:15.8496 0:0.186748 0:2.70066 0:0.258574 0:5.14753 0:4.75967 0:10.8888 0:2.36068 0:-2.59053 0:11.1235 0:3.38061 0:10.4052 0:16.1752 0:-0.679953 0:4.52025 0:-0.445322 0:2.2697 0:15.2846 0:14.9302 0:5.85622 0:-1.99198 0:11.1618 0:9.8258 0:14.1785 0:6.54575 0:-1.89142 0:2.89698 0:-3.31836 0:6.98149 0:10.7308 0:6.71334 0:3.99353 0:0.110133 0:8.53772 0:15.0356 0:9.54329 0:1.4461 0:-3.97916 0:6.02381 0:-1.78129 0:11.9375 0:8.18338 0:6.1531 0:4.96079 0:2.84431 0:9.71088 0:10.75 0:8.90643 0:1.63763 0:-4.68306 0:7.1012 0:-0.632069 0:14.03 0:1.75256 0:3.73495 0:5.00867 0:15.2702 0:10.884 0:7.35499 0:6.46913 0:0.751779 0:-3.76847 0:9.19373 0:0.885855 0:14.2359 0:4.10845 0:4.29999 
-0.25036713645799036 -0.0 0:14.1545 0:18.0523 0:5.45399 0:-2.06859 0:1.88184 0:-1.99198 0:7.18261 0:16.745 0:3.05979 0:5.32949 0:-1.33596 0:7.67102 0:15.4953 0:11.1761 0:3.98395 0:-1.53708 0:3.34231 0:-3.1364 0:7.17303 0:13.9869 0:2.35111 0:4.54419 0:1.10612 0:7.10599 0:16.9031 0:13.0245 0:2.9736 0:-5.22894 0:-0.454898 0:-4.92248 0:8.96868 0:10.3238 0:3.38061 0:4.29041 0:-0.80924 0:7.34062 0:14.2694 0:7.17303 0:1.36948 0:-3.85945 0:4.5825 0:-1.81002 0:11.0995 0:9.57681 0:3.33273 0:2.62883 0:0.799663 0:10.1323 0:12.8856 0:8.50421 0:1.99676 0:-4.5825 0:5.17626 0:-2.66235 0:11.9854 0:7.44118 0:3.19387 0:3.7589 0:2.86825 0:10.2472 0:16.9126 0:9.15543 0:0.742202 0:-6.15789 0:11.6885 0:-0.646435 0:12.4594 0:2.68629 0:4.66869 0:9.07881 0:7.41724 0:11.9902 0:5.54976 0:5.10444 0:1.08697 
-0.18332585075295466 -0.1636917228466148 0:9.54808 0:15.2942 0:4.98952 0:4.60166 0:-3.80199 0:8.48026 0:12.1673 0:15.8544 0:5.00388 0:0.0861913 0:2.42772 0:-3.47638 0:3.46202 0:18.8041 0:-0.847547 0:7.29274 0:-2.0638 0:9.07402 0:16.2423 0:18.0906 0:1.89621 0:-4.25689 0:2.00634 0:-1.96803 0:6.99586 0:18.6077 0:0.507571 0:6.79474 0:-3.78284 0:7.41245 0:20.231 0:16.1465 0:1.99198 0:-3.87382 0:0.756568 0:-2.59053 0:9.7444 0:17.4154 0:2.53785 0:5.84185 0:-2.28407 0:6.18662 0:18.1959 0:14.7052 0:0.751779 0:-5.61201 0:-0.0430956 0:-3.65834 0:13.3309 0:13.1059 0:1.01514 0:4.49152 0:1.15879 0:9.22246 0:14.7722 0:13.3644 0:2.68151 0:-3.51469 0:3.56257 0:-2.86347 0:8.49463 0:11.7651 0:0.47884 0:4.59687 0:4.46279 0:8.58082 0:14.3269 0:17.4633 0:0.684742 0:-1.88663 0:3.63919 0:-0.292093 0:0.344765 0:18.9621 0:-1.66158 
-0.15674936520757754 -0.2287225005382424 0:7.93917 0:13.5081 0:8.9591 0:8.85855 0:9.38048 0:-2.79643 0:-6.54096 0:3.21302 0:-2.11647 0:10.2807 0:8.26478 0:1.99198 0:8.22648 0:16.5008 0:9.96467 0:7.53216 0:11.4443 0:-2.08774 0:-6.27281 0:-1.45089 0:-3.00233 0:9.50498 0:8.97826 0:1.34554 0:9.663 0:16.1609 0:8.38928 0:9.33739 0:10.4818 0:-0.464475 0:-4.06057 0:-0.71826 0:-3.51469 0:6.16746 0:14.1593 0:0.474052 0:8.23605 0:16.2423 0:8.74362 0:7.28316 0:10.8074 0:2.20745 0:-3.14119 0:4.40533 0:-2.6432 0:6.61278 0:3.32794 0:-1.40779 0:8.50899 0:17.765 0:8.25999 0:11.3533 0:10.1754 0:-0.244209 0:-5.18105 0:2.85389 0:-1.82917 0:6.05254 0:12.1673 0:1.09654 0:10.6686 0:12.3684 0:8.72926 0:10.3669 0:12.3349 0:-1.70467 0:-6.09564 0:3.63919 0:-3.18908 0:6.37815 0:8.50899 0:1.22583 0:17.3628 0:20.3699 0:7.08684 
-0.3688251252738015 -0.27881942201772403 0:-2.25534 0:3.85945 0:-4.14197 0:0.59855 0:15.5623 0:-1.23541 0:7.54174 0:1.32639 0:9.89284 0:17.2047 0:21.6675 0:0.584185 0:-4.43406 0:3.40934 0:-2.48039 0:2.72939 0:16.4577 0:-1.14443 0:7.70933 0:1.03908 0:6.73728 0:18.8759 0:16.5775 0:-1.54187 0:-3.91691 0:3.15077 0:-3.66313 0:4.22816 0:20.6907 0:-2.7246 0:9.18895 0:0.378284 0:8.40844 0:15.6485 0:17.1281 0:1.01993 0:-5.43963 0:2.98796 0:-3.35188 0:7.1443 0:14.4322 0:-0.430956 0:6.36379 0:0.153229 0:8.03494 0:18.5455 0:15.0404 0:0.201113 0:-7.21612 0:-0.761356 0:-2.3942 0:13.307 0:12.9 0:0.924162 0:4.9943 0:0.555455 0:7.07726 0:19.1297 0:12.0333 0:1.46046 0:-4.15633 0:2.98318 0:-3.68707 0:9.72046 0:11.6741 0:-0.138864 0:6.20577 0:-1.25456 0:5.39653 0:19.1009 0:13.5943 0:0.799663 0:-4.77883 0:2.42293 0:-2.41336 
-0.4458260944190952 -0.3467793795083536 0:13.5895 0:2.1452 0:2.66235 0:7.41724 0:18.172 0:8.15465 0:3.25611 0:4.14676 0:-2.52828 0:-4.20901 0:21.5334 0:1.92494 0:9.48583 0:2.75812 0:3.58651 0:9.3326 0:15.9214 0:6.48829 0:4.59208 0:4.2521 0:-2.70066 0:-6.36379 0:20.3459 0:-0.220267 0:11.3772 0:3.01191 0:2.89698 0:7.84819 0:17.8751 0:3.13162 0:6.01423 0:1.02472 0:-1.21625 0:-6.01902 0:25.5413 0:0.172383 0:10.2041 0:0.612916 0:4.13239 0:6.70855 0:17.6596 0:5.68384 0:3.47159 0:2.50912 0:-2.96402 0:-3.32315 0:20.8104 0:1.62327 0:11.5305 0:0.962469 0:3.77805 0:7.8051 0:17.1616 0:7.90565 0:2.64799 0:7.27837 0:-1.01035 0:3.62482 0:3.7158 0:6.76123 0:8.39407 0:-1.79086 0:6.25844 0:7.52737 0:-1.15879 0:12.2727 0:3.51469 0:3.19865 0:4.82192 0:5.68862 0:-0.0335188 0:11.7029 0:5.05655 0:-2.08774 0:5.9472 
-0.0 -0.059256829746399946 0:7.3071 0:2.08296 0:5.9041 0:0.976834 0:0.555455 0:9.73961 0:7.01501 0:0.0047884 0:10.2903 0:3.03106 0:-5.09486 0:13.374 0:5.46836 0:2.74376 0:5.84185 0:0.995988 0:2.77727 0:15.2846 0:6.91924 0:-1.37906 0:4.51068 0:5.8227 0:6.44519 0:19.8431 0:3.27048 0:4.78362 0:1.06303 0:-0.933739 0:13.5655 0:11.497 0:8.75799 0:1.29766 0:5.20499 0:4.24731 0:16.5439 0:15.4618 0:2.78206 0:3.96001 0:-0.507571 0:-3.86424 0:18.8088 0:3.59609 0:9.17937 0:2.50434 0:3.9648 0:7.65187 0:18.4306 0:7.78116 0:2.91135 0:4.26647 0:-1.58975 0:-1.88663 0:21.5382 0:3.39977 0:7.70933 0:2.99275 0:3.08852 0:7.0629 0:16.7259 0:8.19296 0:4.04141 0:4.02226 0:-0.186748 0:-2.72939 0:16.6684 0:-0.363919 0:10.0748 0:1.46046 0:6.43083 0:4.51546 0:18.4928 0:10.7212 0:3.11246 0:4.72615 0:-1.34075 
-0.0 -0.05856409552170799 0:11.0468 0:7.25922 0:3.28006 0:5.75087 0:6.92882 0:8.4228 0:9.41879 0:8.47069 0:0.723049 0:-4.16112 0:8.50421 0:-2.83952 0:11.2623 0:4.68785 0:3.27048 0:6.2345 0:13.7714 0:6.12437 0:6.95276 0:4.48195 0:0.124498 0:-3.1795 0:21.3275 0:0.670377 0:9.29429 0:1.07739 0:3.73495 0:7.41724 0:18.1864 0:7.30232 0:3.08852 0:4.24253 0:-1.6089 0:-1.51314 0:19.5558 0:3.9217 0:9.5385 0:-2.48518 0:4.07493 0:10.0604 0:18.2725 0:4.34787 0:1.33596 0:2.20267 0:-1.43173 0:4.458 0:19.259 0:0.919373 0:4.92727 0:-3.66313 0:4.86502 0:15.275 0:14.3125 0:3.76847 0:-3.74932 0:1.85311 0:-2.67672 0:11.0612 0:10.2137 0:0.311246 0:4.86023 0:0.71826 0:4.59687 0:15.6102 0:10.094 0:2.2314 0:-3.97916 0:7.77158 0:-3.24654 0:11.2671 0:6.62715 0:1.01993 0:4.25689 0:3.93607 0:6.88094 
-0.21043160151011078 -0.0 0:1.03908 0:2.20267 0:-2.09732 0:5.87537 0:16.1944 0:1.77171 0:5.35344 0:-3.51948 0:5.18105 0:15.615 0:14.1497 0:2.0638 0:-1.81959 0:4.76446 0:-2.19309 0:9.663 0:10.2807 0:-0.186748 0:3.2609 0:0.636858 0:5.56891 0:16.7929 0:8.17859 0:1.2402 0:-3.3854 0:4.64475 0:-1.70467 0:13.0053 0:6.40688 0:1.11091 0:3.88818 0:7.3071 0:5.6551 0:13.8864 0:6.64152 0:0.818817 0:-5.76524 0:7.46512 0:-3.67749 0:13.9821 0:3.69186 0:1.83875 0:6.83784 0:12.4068 0:4.18506 0:7.67581 0:4.7501 0:0.225055 0:-4.24731 0:20.796 0:-3.67749 0:7.69975 0:1.34554 0:4.03184 0:10.9894 0:18.737 0:3.78763 0:0.225055 0:3.76369 0:-2.1069 0:3.78763 0:13.4027 0:2.82516 0:10.7883 0:-1.53708 0:4.07014 0:10.3525 0:7.57047 0:13.0101 0:2.12126 0:3.43329 0:3.17471 0:7.52737 0:0.857124 0:12.2152 
-1.8558496778822364 -2.4041002518815207 0:-0.986411 0:4.47237 0:5.93762 0:2.14999 0:0.0335188 0:14.2072 0:3.78763 0:-2.08296 0:8.96389 0:2.53785 0:-1.06781 0:7.77637 0:-0.282516 0:2.30322 0:3.29921 0:2.60489 0:4.88896 0:14.2455 0:3.57215 0:-0.445322 0:9.92636 0:3.93607 0:6.11 0:7.07247 0:-1.76692 0:6.21535 0:2.806 0:4.80277 0:6.80911 0:13.283 0:3.82115 0:0.679953 0:8.48026 0:7.08684 0:2.48039 0:6.92403 0:0.287304 0:4.45322 0:2.91135 0:8.5473 0:5.89452 0:12.785 0:3.39977 0:-1.4461 0:5.10923 0:9.54329 0:5.54018 0:14.844 0:1.50356 0:4.95121 0:4.458 0:5.53061 0:6.85221 0:12.1673 0:3.48117 0:3.85945 0:6.36858 0:6.44998 0:5.97593 0:14.528 0:4.34308 0:2.04465 0:2.19309 0:1.70467 0:5.12359 0:5.4492 0:6.52181 0:4.69264 0:8.16423 0:4.10366 0:0.225055 0:7.67102 0:9.35175 0:9.40442 0:8.71011 
-0.37957567334030945 -0.0 0:1.1971 0:2.82995 0:1.34554 0:10.1227 0:8.99741 0:5.89931 0:5.84185 0:2.53307 0:6.52659 0:11.1857 0:14.3317 0:7.75721 0:2.96402 0:3.1364 0:-0.215478 0:4.9943 0:4.18028 0:0.545878 0:7.3502 0:6.84263 0:3.8403 0:8.41323 0:6.2345 0:5.84664 0:8.98783 0:8.08282 0:4.1707 0:2.67672 0:3.87382 0:-0.464475 0:4.73573 0:11.1953 0:3.82115 0:6.52659 0:5.22415 0:1.50356 0:8.20253 0:8.78193 0:2.21224 0:8.95431 0:7.29753 0:2.50912 0:2.44687 0:4.57771 0:1.31681 0:4.57771 0:10.4531 0:0.21069 0:5.9472 0:5.50666 0:3.07416 0:9.88326 0:11.3533 0:6.80432 0:6.36379 0:5.35344 0:1.71904 0:3.75411 0:5.79876 0:0.948104 0:7.31668 0:9.03093 0:2.12605 0:5.2433 0:6.91445 0:6.40688 0:9.41879 0:11.4874 0:8.61913 0:4.96557 0:5.49709 0:1.97761 0:5.08528 0:4.87459 0:1.31202 
-3.3741420622072096 -2.3632657405033086 0:5.95677 0:4.55377 0:4.15633 0:9.61033 0:9.05487 0:8.99741 0:8.55209 0:5.80833 0:3.10767 0:4.63517 0:4.77404 0:3.78763 0:7.3502 0:4.76925 0:5.90889 0:3.59609 0:3.21302 0:8.82503 0:7.4316 0:5.79876 0:15.4809 0:3.9648 0:3.05021 0:5.50188 0:5.92804 0:3.95522 0:5.52103 0:2.35111 0:6.90488 0:5.9472 0:5.59286 0:4.52025 0:9.63427 0:7.56089 0:9.26556 0:10.8026 0:2.85868 0:5.26246 0:3.49553 0:6.4404 0:3.00712 0:3.5913 0:4.21858 0:4.52504 0:8.08761 0:6.17704 0:0.301669 0:11.9279 0:1.63763 0:1.40779 0:8.74362 0:2.34632 0:1.2402 0:7.35978 0:3.51469 0:4.60166 0:9.8689 0:1.76213 0:0.905008 0:9.24162 0:4.04141 0:2.25055 0:20.1879 0:0.933739 0:2.63841 0:4.18506 0:0.047884 0:3.91213 0:4.16591 0:0.531513 0:8.02058 0:6.02381 0:6.91445 0:3.79242 0:8.98305 
-0.536538946291932 -0.0 0:5.97593 0:5.04698 0:0.105345 0:1.5275 0:1.01514 0:0.124498 0:4.93206 0:15.0787 0:2.7677 0:8.79151 0:2.20267 0:8.53772 0:12.3254 0:15.0835 0:6.34463 0:1.48919 0:2.7677 0:0.0526724 0:0.905008 0:7.00065 0:5.58807 0:7.36935 0:6.18183 0:6.80432 0:8.96868 0:4.43406 0:9.07881 0:9.35175 0:9.58638 0:5.03261 0:2.39899 0:2.60968 0:0.435745 0:4.55856 0:7.94875 0:5.4923 0:6.32548 0:7.12036 0:5.33428 0:10.3956 0:8.55688 0:9.73482 0:6.61757 0:7.95354 0:2.43251 0:3.01669 0:4.54898 0:1.7334 0:6.16746 0:7.86256 0:3.9648 0:5.6551 0:5.67426 0:6.91924 0:11.2049 0:12.3589 0:12.129 0:4.87938 0:5.3247 0:2.53307 0:3.01191 0:4.06057 0:3.14119 0:6.32069 0:6.7708 0:8.32703 0:7.24007 0:4.13239 0:9.10276 0:8.06367 0:8.24563 0:15.6724 0:3.94086 0:4.82671 0:4.70221 
-0.48652494278432257 -1.221480459140392 0:4.11324 0:4.13718 0:7.43639 0:4.15633 0:5.62637 0:5.8227 0:7.99184 0:5.39653 0:12.8186 0:5.99029 0:6.14831 0:7.56089 0:1.9824 0:2.92571 0:3.7589 0:4.64954 0:3.22738 0:5.95199 0:5.05655 0:5.14274 0:6.16268 0:6.80432 0:8.65264 0:11.88 0:6.00945 0:9.24162 0:7.95833 0:3.0981 0:5.04698 0:2.9305 0:2.96881 0:8.04931 0:4.99909 0:4.15155 0:7.94396 0:5.44441 0:6.49786 0:8.84897 0:9.41879 0:6.59842 0:10.3573 0:4.27126 0:2.14999 0:2.89698 0:-0.373495 0:2.49476 0:12.2009 0:6.06212 0:3.68707 0:9.47146 0:5.25288 0:5.84185 0:7.29274 0:13.2208 0:5.99987 0:10.7117 0:4.07972 0:-5.88016 0:4.75967 0:-1.08218 0:7.18261 0:11.6215 0:7.20655 0:5.55455 0:4.83629 0:10.3669 0:9.63427 0:4.89375 0:2.60489 0:-5.56891 0:8.18338 0:0.641646 0:10.3669 0:1.86269 0:6.25366 
-0.0024460681900976026 -0.09846402155013483 0:13.8002 0:13.0867 0:5.65989 0:-6.2345 0:3.03106 0:-2.89698 0:9.47146 0:9.64863 0:3.41413 0:3.62482 0:3.27527 0:11.1713 0:9.18416 0:3.11246 0:-0.0047884 0:-4.42927 0:10.3573 0:-0.459687 0:9.75877 0:5.23372 0:2.67193 0:3.32315 0:8.50421 0:11.6406 0:9.57681 0:5.87058 0:-1.09654 0:-5.22415 0:10.1993 0:-0.0526724 0:10.0461 0:4.80277 0:1.5275 0:5.65989 0:17.9326 0:8.79151 0:4.0462 0:4.60644 0:-0.608127 0:-4.14197 0:17.3197 0:0.023942 0:8.70532 0:5.23372 0:2.41336 0:4.02226 0:16.0986 0:9.80665 0:7.762 0:5.68862 0:-0.512359 0:-3.2226 0:5.6551 0:-1.37906 0:11.2336 0:7.11078 0:2.79164 0:6.0286 0:4.54898 0:5.46836 0:12.6031 0:13.058 0:0.885855 0:-1.8148 0:-0.876278 0:-2.59531 0:5.06134 0:16.52 0:4.41491 0:7.25922 0:1.34075 0:2.52349 0:8.92558 0:13.69 0:3.30879 
-0.3846455918794936 -0.18263530896746288 0:4.956 0:2.2697 0:0.129287 0:4.66869 0:14.1066 0:2.02071 0:6.04775 0:4.08451 0:0.526724 0:6.90967 0:11.3246 0:2.08774 0:3.65834 0:7.83383 0:0.828394 0:4.22816 0:6.76123 0:-0.407014 0:5.71735 0:13.2974 0:1.86269 0:3.01191 0:6.74207 0:0.0526724 0:6.10043 0:5.21457 0:2.64799 0:8.81066 0:11.3772 0:3.28006 0:2.81558 0:4.11803 0:1.66158 0:4.47716 0:3.20344 0:2.41814 0:2.35111 0:24.0809 0:11.8561 0:8.2983 0:-4.35266 0:-0.742202 0:3.60567 0:24.5597 0:9.23683 0:3.84988 0:-1.47483 0:0.0287304 0:3.98395 0:23.0131 0:8.56167 0:5.34865 0:-2.52828 0:0.23942 0:9.09797 0:18.4689 0:7.95354 0:4.61123 0:-2.03028 0:-1.00556 0:10.3094 0:9.43794 0:3.15556 0:3.73495 0:-0.411803 0:1.00556 0:11.6502 0:4.16112 0:2.04465 0:1.55144 0:6.4404 0:-2.00155 0:11.1666 0:7.94875 0:0.857124 
-0.6386764059512829 -0.19526331897060903 0:5.4923 0:27.1981 0:6.65109 0:2.1452 0:1.82917 0:-0.68953 0:-0.397437 0:6.24408 0:-1.79086 0:12.9143 0:4.63996 0:1.26893 0:2.50434 0:4.53941 0:5.43484 0:11.789 0:9.0836 0:-2.63841 0:-3.06937 0:0.311246 0:-1.62806 0:12.8617 0:6.46434 0:1.4844 0:3.44765 0:2.2697 0:4.8315 0:16.6062 0:9.07881 0:-1.46525 0:-2.70066 0:1.96325 0:-1.22104 0:8.04452 0:16.7594 0:1.652 0:5.84185 0:2.2697 0:4.39097 0:20.4465 0:13.9726 0:2.29843 0:-2.39899 0:-0.962469 0:-3.65355 0:4.27126 0:16.1848 0:0.335188 0:6.04775 0:1.10133 0:4.11324 0:12.9814 0:16.9509 0:1.74777 0:0.995988 0:7.32626 0:1.14443 0:4.51068 0:3.5913 0:8.46111 0:4.41491 0:1.14922 0:10.3286 0:4.00789 0:1.21147 0:9.01178 0:4.51068 0:-0.0526724 0:10.0221 0:3.55778 0:-0.90022 0:10.4531 0:2.84431 0:1.15879 0:9.45231 
-0.028603909263467706 -0.44018151703516223 0:1.98719 0:0.00957681 0:8.88728 0:2.1069 0:1.89142 0:10.3382 0:2.66714 0:1.8579 0:9.72525 0:2.67672 0:1.88663 0:9.5816 0:2.82516 0:2.13084 0:9.62469 0:3.36625 0:2.0638 0:9.70609 0:3.20823 0:1.652 0:8.61434 0:3.13162 0:5.09007 0:9.59117 0:4.28562 0:3.43807 0:8.39886 0:4.5825 0:5.69341 0:4.26647 0:4.80756 0:5.50188 0:4.08451 0:3.7972 0:12.1865 0:3.21781 0:2.54743 0:8.98783 0:3.05979 0:6.44519 0:7.37414 0:1.58496 0:2.29843 0:11.5975 0:-2.79164 0:6.97192 0:0.770933 0:1.01993 0:11.1282 0:30.5261 0:-0.679953 0:-2.08774 0:0.612916 0:-1.46525 0:3.64398 0:20.049 0:-1.19231 0:7.18739 0:1.18752 0:2.50434 0:9.40442 0:19.6181 0:-0.981623 0:-4.07014 0:-1.69031 0:-3.69186 0:5.39653 0:12.0524 0:-1.96325 0:3.91213 0:10.07 0:4.43406 0:6.71813 0:12.9766 0:-5.13796 
-0.3719737922639864 -0.1581409661365298 0:0.181959 0:20.2789 0:-1.22583 0:6.76601 0:2.48518 0:0.995988 0:13.3836 0:25.7712 0:-1.00556 0:1.58975 0:2.29365 0:-2.50434 0:-1.76213 0:10.6063 0:-1.67594 0:8.55209 0:6.61278 0:-0.0143652 0:7.79552 0:21.567 0:2.34632 0:4.62081 0:8.03494 0:-2.02071 0:-3.43329 0:0.976834 0:-3.14598 0:6.39252 0:3.80678 0:-0.560243 0:12.1051 0:18.67 0:-0.368707 0:7.8051 0:6.79474 0:-2.38463 0:-0.876278 0:2.37026 0:-2.70545 0:9.18895 0:6.87615 0:-3.553 0:7.52258 0:4.04141 0:5.18105 0:21.5622 0:12.5456 0:2.66714 0:-7.11557 0:3.77805 0:-2.22661 0:18.5263 0:6.06212 0:-0.847547 0:4.40054 0:-0.90022 0:13.5368 0:10.6638 0:9.06924 0:4.63039 0:0.890643 0:4.15633 0:-0.751779 0:5.40132 0:13.0532 0:8.8777 0:6.28717 0:1.652 0:9.05966 0:9.83059 0:11.9423 0:9.42837 0:0.914585 0:5.47314 0:1.37427 
